Language model created by QuickLM on Sat Feb 15 21:50:04 EST 2014
Copyright (c) 1996-2010 Carnegie Mellon University and Alexander I. Rudnicky

The model is in standard ARPA format, designed by Doug Paul while he was at MITRE.

The code that was used to produce this language model is available in Open Source.
Please visit http://www.speech.cs.cmu.edu/tools/ for more information

The (fixed) discount mass is 0.5. The backoffs are computed using the ratio method.
This model based on a corpus of 24 sentences and 36 words

\data\
ngram 1=36
ngram 2=62
ngram 3=49

\1-grams:
-0.9622 </s> -0.3010
-0.9622 <s> -0.2509
-2.3424 BACKWARD -0.2509
-2.3424 BLUE -0.2509
-2.3424 BRIGHTER -0.2509
-2.3424 CANCEL -0.2509
-1.5643 CHANGE -0.2788
-2.3424 DARKER -0.2509
-2.3424 DOWN -0.2509
-2.3424 FORWARD -0.2509
-2.3424 GO -0.2509
-2.3424 GREEN -0.2509
-2.3424 HBO -0.2509
-2.3424 IS -0.2991
-2.3424 IT -0.2509
-2.3424 LEFT -0.2509
-1.4393 LIGHTS -0.2374
-2.3424 MTV -0.2509
-2.3424 NEGATIVE -0.2509
-2.3424 OFF -0.2788
-2.3424 ON -0.2788
-2.3424 RED -0.2509
-2.3424 RIGHT -0.2509
-2.3424 SCARLETT -0.2509
-2.3424 SEXY -0.2971
-2.3424 STOP -0.2509
-1.3010 THE -0.2788
-2.0414 TIME -0.2486
-2.0414 TO -0.2971
-1.7404 TURN -0.2746
-2.0414 TV -0.2971
-2.3424 UP -0.2509
-2.3424 WEATHER -0.2509
-2.3424 WHAT -0.2971
-2.3424 WHATS -0.2788
-2.3424 WHITE -0.2509

\2-grams:
-1.6812 <s> BACKWARD 0.0000
-1.6812 <s> CANCEL 0.0000
-0.9031 <s> CHANGE 0.0000
-1.6812 <s> DOWN 0.0000
-1.6812 <s> FORWARD 0.0000
-1.6812 <s> GO 0.0000
-1.6812 <s> LEFT 0.0000
-1.6812 <s> NEGATIVE 0.0000
-1.6812 <s> RIGHT 0.0000
-1.6812 <s> SCARLETT 0.0000
-1.6812 <s> SEXY 0.0000
-1.6812 <s> STOP 0.0000
-1.0792 <s> TURN 0.0000
-1.6812 <s> UP 0.0000
-1.6812 <s> WHAT 0.0000
-1.6812 <s> WHATS 0.0000
-0.3010 BACKWARD </s> -0.3010
-0.3010 BLUE </s> -0.3010
-0.3010 BRIGHTER </s> -0.3010
-0.3010 CANCEL </s> -0.3010
-0.3010 CHANGE THE -0.0378
-0.3010 DARKER </s> -0.3010
-0.3010 DOWN </s> -0.3010
-0.3010 FORWARD </s> -0.3010
-0.3010 GO </s> -0.3010
-0.3010 GREEN </s> -0.3010
-0.3010 HBO </s> -0.3010
-0.3010 IS IT 0.0000
-0.3010 IT </s> -0.3010
-0.3010 LEFT </s> -0.3010
-0.9031 LIGHTS </s> -0.3010
-1.2041 LIGHTS BLUE 0.0000
-1.2041 LIGHTS BRIGHTER 0.0000
-1.2041 LIGHTS DARKER 0.0000
-1.2041 LIGHTS GREEN 0.0000
-1.2041 LIGHTS RED 0.0000
-1.2041 LIGHTS WHITE 0.0000
-0.3010 MTV </s> -0.3010
-0.3010 NEGATIVE </s> -0.3010
-0.3010 OFF THE -0.1047
-0.3010 ON THE -0.1047
-0.3010 RED </s> -0.3010
-0.3010 RIGHT </s> -0.3010
-0.3010 SCARLETT </s> -0.3010
-0.3010 SEXY TIME -0.1761
-0.3010 STOP </s> -0.3010
-0.4393 THE LIGHTS 0.0000
-1.0414 THE TV 0.0000
-1.3424 THE WEATHER 0.0000
-0.6021 TIME </s> -0.3010
-0.6021 TIME IS 0.0000
-0.6021 TO HBO 0.0000
-0.6021 TO MTV 0.0000
-0.9031 TURN OFF 0.0000
-0.9031 TURN ON 0.0000
-0.6021 TURN THE -0.1047
-0.3010 TV TO 0.0000
-0.3010 UP </s> -0.3010
-0.3010 WEATHER </s> -0.3010
-0.3010 WHAT TIME -0.1761
-0.3010 WHATS THE -0.2808
-0.3010 WHITE </s> -0.3010

\3-grams:
-0.3010 <s> BACKWARD </s>
-0.3010 <s> CANCEL </s>
-0.3010 <s> CHANGE THE
-0.3010 <s> DOWN </s>
-0.3010 <s> FORWARD </s>
-0.3010 <s> GO </s>
-0.3010 <s> LEFT </s>
-0.3010 <s> NEGATIVE </s>
-0.3010 <s> RIGHT </s>
-0.3010 <s> SCARLETT </s>
-0.3010 <s> SEXY TIME
-0.3010 <s> STOP </s>
-0.9031 <s> TURN OFF
-0.9031 <s> TURN ON
-0.6021 <s> TURN THE
-0.3010 <s> UP </s>
-0.3010 <s> WHAT TIME
-0.3010 <s> WHATS THE
-0.4771 CHANGE THE LIGHTS
-0.7782 CHANGE THE TV
-0.3010 IS IT </s>
-0.3010 LIGHTS BLUE </s>
-0.3010 LIGHTS BRIGHTER </s>
-0.3010 LIGHTS DARKER </s>
-0.3010 LIGHTS GREEN </s>
-0.3010 LIGHTS RED </s>
-0.3010 LIGHTS WHITE </s>
-0.3010 OFF THE LIGHTS
-0.3010 ON THE LIGHTS
-0.3010 SEXY TIME </s>
-0.9031 THE LIGHTS </s>
-1.2041 THE LIGHTS BLUE
-1.2041 THE LIGHTS BRIGHTER
-1.2041 THE LIGHTS DARKER
-1.2041 THE LIGHTS GREEN
-1.2041 THE LIGHTS RED
-1.2041 THE LIGHTS WHITE
-0.3010 THE TV TO
-0.3010 THE WEATHER </s>
-0.3010 TIME IS IT
-0.3010 TO HBO </s>
-0.3010 TO MTV </s>
-0.3010 TURN OFF THE
-0.3010 TURN ON THE
-0.3010 TURN THE LIGHTS
-0.6021 TV TO HBO
-0.6021 TV TO MTV
-0.3010 WHAT TIME IS
-0.3010 WHATS THE WEATHER

\end\
