Language model created by QuickLM on Thu Mar  6 01:35:05 EST 2014
Copyright (c) 1996-2010 Carnegie Mellon University and Alexander I. Rudnicky

The model is in standard ARPA format, designed by Doug Paul while he was at MITRE.

The code that was used to produce this language model is available in Open Source.
Please visit http://www.speech.cs.cmu.edu/tools/ for more information

The (fixed) discount mass is 0.5. The backoffs are computed using the ratio method.
This model based on a corpus of 58 sentences and 62 words

\data\
ngram 1=62
ngram 2=119
ngram 3=88

\1-grams:
-0.8820 </s> -0.3010
-0.8820 <s> -0.2296
-2.6454 APPLE -0.2399
-2.6454 BACKWARD -0.2399
-2.6454 BLUE -0.2399
-2.6454 BRIGHTER -0.2399
-2.6454 BUTTON -0.2399
-2.6454 CANCEL -0.2399
-1.8673 CHANGE -0.2901
-2.3444 CHANNEL -0.2921
-2.6454 CIRCLE -0.3000
-2.6454 DARKER -0.2399
-2.0434 DOWN -0.2399
-2.6454 EIGHT -0.2399
-2.6454 ENTER -0.2399
-2.6454 FIVE -0.2399
-2.6454 FORWARD -0.2399
-2.6454 FOUR -0.2399
-2.6454 FRIZZY -0.2399
-2.6454 GO -0.2399
-2.6454 GREEN -0.2399
-2.6454 HBO -0.2399
-2.6454 INPUT -0.2399
-2.6454 IS -0.3000
-2.6454 IT -0.2399
-2.1683 LEFT -0.2399
-1.7423 LIGHTS -0.2331
-2.6454 MENU -0.2399
-2.6454 MTV -0.2399
-2.6454 MUTE -0.2399
-2.6454 NEGATIVE -0.2399
-2.6454 NINE -0.2399
-2.6454 OFF -0.2901
-2.6454 ON -0.2901
-2.6454 ONE -0.2399
-2.6454 PAUSE -0.2399
-2.6454 PLAY -0.2399
-2.6454 POWER -0.2399
-2.6454 RECALL -0.2399
-2.6454 RED -0.2399
-2.1683 RIGHT -0.2399
-2.6454 SCARLETT -0.2399
-2.0434 SELECT -0.2891
-2.6454 SEVEN -0.2399
-2.6454 SEXY -0.2991
-2.6454 SIX -0.2399
-2.6454 STOP -0.2399
-1.6040 THE -0.2891
-2.6454 THREE -0.2399
-2.3444 TIME -0.2388
-2.3444 TO -0.2991
-2.6454 TOSHIBA -0.2399
-2.0434 TURN -0.2881
-2.1683 TV -0.2377
-2.6454 TWO -0.2399
-1.9465 UP -0.2399
-2.3444 VOLUME -0.2921
-2.6454 WEATHER -0.2399
-2.6454 WHAT -0.2991
-2.6454 WHATS -0.2901
-2.6454 WHITE -0.2399
-2.6454 ZERO -0.2399

\2-grams:
-2.0645 <s> APPLE 0.0000
-2.0645 <s> BACKWARD 0.0000
-2.0645 <s> CANCEL 0.0000
-1.2863 <s> CHANGE 0.0000
-1.7634 <s> CHANNEL 0.0000
-2.0645 <s> CIRCLE 0.0000
-1.7634 <s> DOWN 0.0000
-2.0645 <s> EIGHT 0.0000
-2.0645 <s> FIVE 0.0000
-2.0645 <s> FORWARD 0.0000
-2.0645 <s> FOUR 0.0000
-2.0645 <s> FRIZZY 0.0000
-2.0645 <s> GO 0.0000
-2.0645 <s> INPUT 0.0000
-1.7634 <s> LEFT 0.0000
-2.0645 <s> MENU 0.0000
-2.0645 <s> MUTE 0.0000
-2.0645 <s> NEGATIVE 0.0000
-2.0645 <s> NINE 0.0000
-2.0645 <s> ONE 0.0000
-2.0645 <s> PAUSE 0.0000
-2.0645 <s> PLAY 0.0000
-2.0645 <s> POWER 0.0000
-2.0645 <s> RECALL 0.0000
-1.7634 <s> RIGHT 0.0000
-2.0645 <s> SCARLETT 0.0000
-1.4624 <s> SELECT 0.0000
-2.0645 <s> SEVEN 0.0000
-2.0645 <s> SEXY 0.0000
-2.0645 <s> SIX 0.0000
-2.0645 <s> STOP 0.0000
-2.0645 <s> THREE 0.0000
-2.0645 <s> TOSHIBA 0.0000
-1.4624 <s> TURN 0.0000
-2.0645 <s> TV -0.2218
-2.0645 <s> TWO 0.0000
-1.7634 <s> UP 0.0000
-1.7634 <s> VOLUME 0.0000
-2.0645 <s> WHAT 0.0000
-2.0645 <s> WHATS 0.0000
-2.0645 <s> ZERO 0.0000
-0.3010 APPLE </s> -0.3010
-0.3010 BACKWARD </s> -0.3010
-0.3010 BLUE </s> -0.3010
-0.3010 BRIGHTER </s> -0.3010
-0.3010 BUTTON </s> -0.3010
-0.3010 CANCEL </s> -0.3010
-0.3010 CHANGE THE -0.0378
-0.6021 CHANNEL DOWN 0.0000
-0.6021 CHANNEL UP 0.0000
-0.3010 CIRCLE BUTTON 0.0000
-0.3010 DARKER </s> -0.3010
-0.3010 DOWN </s> -0.3010
-0.3010 EIGHT </s> -0.3010
-0.3010 ENTER </s> -0.3010
-0.3010 FIVE </s> -0.3010
-0.3010 FORWARD </s> -0.3010
-0.3010 FOUR </s> -0.3010
-0.3010 FRIZZY </s> -0.3010
-0.3010 GO </s> -0.3010
-0.3010 GREEN </s> -0.3010
-0.3010 HBO </s> -0.3010
-0.3010 INPUT </s> -0.3010
-0.3010 IS IT 0.0000
-0.3010 IT </s> -0.3010
-0.3010 LEFT </s> -0.3010
-0.9031 LIGHTS </s> -0.3010
-1.2041 LIGHTS BLUE 0.0000
-1.2041 LIGHTS BRIGHTER 0.0000
-1.2041 LIGHTS DARKER 0.0000
-1.2041 LIGHTS GREEN 0.0000
-1.2041 LIGHTS RED 0.0000
-1.2041 LIGHTS WHITE 0.0000
-0.3010 MENU </s> -0.3010
-0.3010 MTV </s> -0.3010
-0.3010 MUTE </s> -0.3010
-0.3010 NEGATIVE </s> -0.3010
-0.3010 NINE </s> -0.3010
-0.3010 OFF THE -0.1047
-0.3010 ON THE -0.1047
-0.3010 ONE </s> -0.3010
-0.3010 PAUSE </s> -0.3010
-0.3010 PLAY </s> -0.3010
-0.3010 POWER </s> -0.3010
-0.3010 RECALL </s> -0.3010
-0.3010 RED </s> -0.3010
-0.3010 RIGHT </s> -0.3010
-0.3010 SCARLETT </s> -0.3010
-0.9031 SELECT ENTER 0.0000
-0.9031 SELECT LEFT 0.0000
-0.9031 SELECT RIGHT 0.0000
-0.9031 SELECT UP 0.0000
-0.3010 SEVEN </s> -0.3010
-0.3010 SEXY TIME -0.1761
-0.3010 SIX </s> -0.3010
-0.3010 STOP </s> -0.3010
-0.4393 THE LIGHTS 0.0000
-1.0414 THE TV -0.1249
-1.3424 THE WEATHER 0.0000
-0.3010 THREE </s> -0.3010
-0.6021 TIME </s> -0.3010
-0.6021 TIME IS 0.0000
-0.6021 TO HBO 0.0000
-0.6021 TO MTV 0.0000
-0.3010 TOSHIBA </s> -0.3010
-0.9031 TURN OFF 0.0000
-0.9031 TURN ON 0.0000
-0.6021 TURN THE -0.1047
-0.7782 TV </s> -0.3010
-0.4771 TV TO 0.0000
-0.3010 TWO </s> -0.3010
-0.3010 UP </s> -0.3010
-0.6021 VOLUME DOWN 0.0000
-0.6021 VOLUME UP 0.0000
-0.3010 WEATHER </s> -0.3010
-0.3010 WHAT TIME -0.1761
-0.3010 WHATS THE -0.2808
-0.3010 WHITE </s> -0.3010
-0.3010 ZERO </s> -0.3010

\3-grams:
-0.3010 <s> APPLE </s>
-0.3010 <s> BACKWARD </s>
-0.3010 <s> CANCEL </s>
-0.3010 <s> CHANGE THE
-0.6021 <s> CHANNEL DOWN
-0.6021 <s> CHANNEL UP
-0.3010 <s> CIRCLE BUTTON
-0.3010 <s> DOWN </s>
-0.3010 <s> EIGHT </s>
-0.3010 <s> FIVE </s>
-0.3010 <s> FORWARD </s>
-0.3010 <s> FOUR </s>
-0.3010 <s> FRIZZY </s>
-0.3010 <s> GO </s>
-0.3010 <s> INPUT </s>
-0.3010 <s> LEFT </s>
-0.3010 <s> MENU </s>
-0.3010 <s> MUTE </s>
-0.3010 <s> NEGATIVE </s>
-0.3010 <s> NINE </s>
-0.3010 <s> ONE </s>
-0.3010 <s> PAUSE </s>
-0.3010 <s> PLAY </s>
-0.3010 <s> POWER </s>
-0.3010 <s> RECALL </s>
-0.3010 <s> RIGHT </s>
-0.3010 <s> SCARLETT </s>
-0.9031 <s> SELECT ENTER
-0.9031 <s> SELECT LEFT
-0.9031 <s> SELECT RIGHT
-0.9031 <s> SELECT UP
-0.3010 <s> SEVEN </s>
-0.3010 <s> SEXY TIME
-0.3010 <s> SIX </s>
-0.3010 <s> STOP </s>
-0.3010 <s> THREE </s>
-0.3010 <s> TOSHIBA </s>
-0.9031 <s> TURN OFF
-0.9031 <s> TURN ON
-0.6021 <s> TURN THE
-0.3010 <s> TV </s>
-0.3010 <s> TWO </s>
-0.3010 <s> UP </s>
-0.6021 <s> VOLUME DOWN
-0.6021 <s> VOLUME UP
-0.3010 <s> WHAT TIME
-0.3010 <s> WHATS THE
-0.3010 <s> ZERO </s>
-0.4771 CHANGE THE LIGHTS
-0.7782 CHANGE THE TV
-0.3010 CHANNEL DOWN </s>
-0.3010 CHANNEL UP </s>
-0.3010 CIRCLE BUTTON </s>
-0.3010 IS IT </s>
-0.3010 LIGHTS BLUE </s>
-0.3010 LIGHTS BRIGHTER </s>
-0.3010 LIGHTS DARKER </s>
-0.3010 LIGHTS GREEN </s>
-0.3010 LIGHTS RED </s>
-0.3010 LIGHTS WHITE </s>
-0.3010 OFF THE LIGHTS
-0.3010 ON THE LIGHTS
-0.3010 SELECT ENTER </s>
-0.3010 SELECT LEFT </s>
-0.3010 SELECT RIGHT </s>
-0.3010 SELECT UP </s>
-0.3010 SEXY TIME </s>
-0.9031 THE LIGHTS </s>
-1.2041 THE LIGHTS BLUE
-1.2041 THE LIGHTS BRIGHTER
-1.2041 THE LIGHTS DARKER
-1.2041 THE LIGHTS GREEN
-1.2041 THE LIGHTS RED
-1.2041 THE LIGHTS WHITE
-0.3010 THE TV TO
-0.3010 THE WEATHER </s>
-0.3010 TIME IS IT
-0.3010 TO HBO </s>
-0.3010 TO MTV </s>
-0.3010 TURN OFF THE
-0.3010 TURN ON THE
-0.3010 TURN THE LIGHTS
-0.6021 TV TO HBO
-0.6021 TV TO MTV
-0.3010 VOLUME DOWN </s>
-0.3010 VOLUME UP </s>
-0.3010 WHAT TIME IS
-0.3010 WHATS THE WEATHER

\end\
