Language model created by QuickLM on Tue Jul 23 13:01:21 EDT 2013
Copyright (c) 1996-2000
Carnegie Mellon University and Alexander I. Rudnicky

This model based on a corpus of 8 sentences and 12 words
The (fixed) discount mass is 0.5

\data\
ngram 1=12
ngram 2=18
ngram 3=17

\1-grams:
-0.9165 </s> -0.3010
-0.9165 <s> -0.1891
-1.8195 CANCEL -0.2449
-1.8195 EXCUSE -0.2944
-1.8195 HELLO -0.2449
-1.8195 HEY -0.2449
-1.8195 HI -0.2449
-1.8195 ME -0.2449
-0.9165 SCARLETT -0.2449
-1.8195 UP -0.2449
-1.8195 WHAT'S -0.2944
-1.8195 YO -0.2449

\2-grams:
-1.2041 <s> CANCEL 0.0000
-1.2041 <s> EXCUSE 0.0000
-1.2041 <s> HELLO 0.0000
-1.2041 <s> HEY 0.0000
-1.2041 <s> HI 0.0000
-1.2041 <s> SCARLETT 0.0000
-1.2041 <s> WHAT'S 0.0000
-1.2041 <s> YO 0.0000
-0.3010 CANCEL SCARLETT 0.0000
-0.3010 EXCUSE ME 0.0000
-0.3010 HELLO SCARLETT 0.0000
-0.3010 HEY SCARLETT 0.0000
-0.3010 HI SCARLETT 0.0000
-0.3010 ME SCARLETT 0.0000
-0.3010 SCARLETT </s> -0.3010
-0.3010 UP SCARLETT 0.0000
-0.3010 WHAT'S UP 0.0000
-0.3010 YO SCARLETT 0.0000

\3-grams:
-0.3010 <s> CANCEL SCARLETT
-0.3010 <s> EXCUSE ME
-0.3010 <s> HELLO SCARLETT
-0.3010 <s> HEY SCARLETT
-0.3010 <s> HI SCARLETT
-0.3010 <s> SCARLETT </s>
-0.3010 <s> WHAT'S UP
-0.3010 <s> YO SCARLETT
-0.3010 CANCEL SCARLETT </s>
-0.3010 EXCUSE ME SCARLETT
-0.3010 HELLO SCARLETT </s>
-0.3010 HEY SCARLETT </s>
-0.3010 HI SCARLETT </s>
-0.3010 ME SCARLETT </s>
-0.3010 UP SCARLETT </s>
-0.3010 WHAT'S UP SCARLETT
-0.3010 YO SCARLETT </s>

\end\
