Language model created by QuickLM on Sat Feb 15 18:50:59 EST 2014
Copyright (c) 1996-2010 Carnegie Mellon University and Alexander I. Rudnicky

The model is in standard ARPA format, designed by Doug Paul while he was at MITRE.

The code that was used to produce this language model is available in Open Source.
Please visit http://www.speech.cs.cmu.edu/tools/ for more information

The (fixed) discount mass is 0.5. The backoffs are computed using the ratio method.
This model based on a corpus of 14 sentences and 26 words

\data\
ngram 1=26
ngram 2=42
ngram 3=39

\1-grams:
-1.0580 </s> -0.3010
-1.0580 <s> -0.2613
-2.2041 BLUE -0.2613
-2.2041 BRIGHTER -0.2613
-1.4260 CHANGE -0.2701
-2.2041 DARKER -0.2613
-2.2041 GREEN -0.2613
-2.2041 HBO -0.2613
-2.2041 IS -0.2983
-2.2041 IT -0.2613
-1.3010 LIGHTS -0.2430
-2.2041 MTV -0.2613
-2.2041 OFF -0.2701
-2.2041 ON -0.2701
-2.2041 RED -0.2613
-2.2041 SCARLETT -0.2613
-2.2041 SEXY -0.2956
-1.1627 THE -0.2701
-1.9031 TIME -0.2583
-1.9031 TO -0.2956
-1.6021 TURN -0.2642
-1.9031 TV -0.2956
-2.2041 WEATHER -0.2613
-2.2041 WHAT -0.2956
-2.2041 WHATS -0.2701
-2.2041 WHITE -0.2613

\2-grams:
-0.6690 <s> CHANGE 0.0000
-1.4472 <s> SCARLETT 0.0000
-1.4472 <s> SEXY 0.0000
-0.8451 <s> TURN 0.0000
-1.4472 <s> WHAT 0.0000
-1.4472 <s> WHATS 0.0000
-0.3010 BLUE </s> -0.3010
-0.3010 BRIGHTER </s> -0.3010
-0.3010 CHANGE THE -0.0378
-0.3010 DARKER </s> -0.3010
-0.3010 GREEN </s> -0.3010
-0.3010 HBO </s> -0.3010
-0.3010 IS IT 0.0000
-0.3010 IT </s> -0.3010
-0.9031 LIGHTS </s> -0.3010
-1.2041 LIGHTS BLUE 0.0000
-1.2041 LIGHTS BRIGHTER 0.0000
-1.2041 LIGHTS DARKER 0.0000
-1.2041 LIGHTS GREEN 0.0000
-1.2041 LIGHTS RED 0.0000
-1.2041 LIGHTS WHITE 0.0000
-0.3010 MTV </s> -0.3010
-0.3010 OFF THE -0.1047
-0.3010 ON THE -0.1047
-0.3010 RED </s> -0.3010
-0.3010 SCARLETT </s> -0.3010
-0.3010 SEXY TIME -0.1761
-0.4393 THE LIGHTS 0.0000
-1.0414 THE TV 0.0000
-1.3424 THE WEATHER 0.0000
-0.6021 TIME </s> -0.3010
-0.6021 TIME IS 0.0000
-0.6021 TO HBO 0.0000
-0.6021 TO MTV 0.0000
-0.9031 TURN OFF 0.0000
-0.9031 TURN ON 0.0000
-0.6021 TURN THE -0.1047
-0.3010 TV TO 0.0000
-0.3010 WEATHER </s> -0.3010
-0.3010 WHAT TIME -0.1761
-0.3010 WHATS THE -0.2808
-0.3010 WHITE </s> -0.3010

\3-grams:
-0.3010 <s> CHANGE THE
-0.3010 <s> SCARLETT </s>
-0.3010 <s> SEXY TIME
-0.9031 <s> TURN OFF
-0.9031 <s> TURN ON
-0.6021 <s> TURN THE
-0.3010 <s> WHAT TIME
-0.3010 <s> WHATS THE
-0.4771 CHANGE THE LIGHTS
-0.7782 CHANGE THE TV
-0.3010 IS IT </s>
-0.3010 LIGHTS BLUE </s>
-0.3010 LIGHTS BRIGHTER </s>
-0.3010 LIGHTS DARKER </s>
-0.3010 LIGHTS GREEN </s>
-0.3010 LIGHTS RED </s>
-0.3010 LIGHTS WHITE </s>
-0.3010 OFF THE LIGHTS
-0.3010 ON THE LIGHTS
-0.3010 SEXY TIME </s>
-0.9031 THE LIGHTS </s>
-1.2041 THE LIGHTS BLUE
-1.2041 THE LIGHTS BRIGHTER
-1.2041 THE LIGHTS DARKER
-1.2041 THE LIGHTS GREEN
-1.2041 THE LIGHTS RED
-1.2041 THE LIGHTS WHITE
-0.3010 THE TV TO
-0.3010 THE WEATHER </s>
-0.3010 TIME IS IT
-0.3010 TO HBO </s>
-0.3010 TO MTV </s>
-0.3010 TURN OFF THE
-0.3010 TURN ON THE
-0.3010 TURN THE LIGHTS
-0.6021 TV TO HBO
-0.6021 TV TO MTV
-0.3010 WHAT TIME IS
-0.3010 WHATS THE WEATHER

\end\
