Language model created by QuickLM on Sat Feb 15 18:10:59 EST 2014
Copyright (c) 1996-2010 Carnegie Mellon University and Alexander I. Rudnicky

The model is in standard ARPA format, designed by Doug Paul while he was at MITRE.

The code that was used to produce this language model is available in Open Source.
Please visit http://www.speech.cs.cmu.edu/tools/ for more information

The (fixed) discount mass is 0.5. The backoffs are computed using the ratio method.
This model based on a corpus of 13 sentences and 25 words

\data\
ngram 1=25
ngram 2=40
ngram 3=37

\1-grams:
-1.0563 </s> -0.3010
-1.0563 <s> -0.2611
-2.1703 BLUE -0.2611
-2.1703 BRIGHTER -0.2611
-1.4713 CHANGE -0.2706
-2.1703 DARKER -0.2611
-2.1703 GREEN -0.2611
-2.1703 HBO -0.2611
-2.1703 IS -0.2981
-2.1703 IT -0.2611
-1.3252 LIGHTS -0.2447
-2.1703 MTV -0.2611
-2.1703 OFF -0.2706
-2.1703 ON -0.2706
-2.1703 RED -0.2611
-2.1703 SCARLETT -0.2611
-2.1703 SEXY -0.2951
-1.1703 THE -0.2706
-1.8692 TIME -0.2579
-1.8692 TO -0.2951
-1.5682 TURN -0.2643
-1.8692 TV -0.2951
-2.1703 WEATHER -0.2611
-2.1703 WHAT -0.2951
-2.1703 WHATS -0.2706

\2-grams:
-0.7160 <s> CHANGE 0.0000
-1.4150 <s> SCARLETT 0.0000
-1.4150 <s> SEXY 0.0000
-0.8129 <s> TURN 0.0000
-1.4150 <s> WHAT 0.0000
-1.4150 <s> WHATS 0.0000
-0.3010 BLUE </s> -0.3010
-0.3010 BRIGHTER </s> -0.3010
-0.3010 CHANGE THE -0.0414
-0.3010 DARKER </s> -0.3010
-0.3010 GREEN </s> -0.3010
-0.3010 HBO </s> -0.3010
-0.3010 IS IT 0.0000
-0.3010 IT </s> -0.3010
-0.8451 LIGHTS </s> -0.3010
-1.1461 LIGHTS BLUE 0.0000
-1.1461 LIGHTS BRIGHTER 0.0000
-1.1461 LIGHTS DARKER 0.0000
-1.1461 LIGHTS GREEN 0.0000
-1.1461 LIGHTS RED 0.0000
-0.3010 MTV </s> -0.3010
-0.3010 OFF THE -0.1139
-0.3010 ON THE -0.1139
-0.3010 RED </s> -0.3010
-0.3010 SCARLETT </s> -0.3010
-0.3010 SEXY TIME -0.1761
-0.4559 THE LIGHTS 0.0000
-1.0000 THE TV 0.0000
-1.3010 THE WEATHER 0.0000
-0.6021 TIME </s> -0.3010
-0.6021 TIME IS 0.0000
-0.6021 TO HBO 0.0000
-0.6021 TO MTV 0.0000
-0.9031 TURN OFF 0.0000
-0.9031 TURN ON 0.0000
-0.6021 TURN THE -0.1139
-0.3010 TV TO 0.0000
-0.3010 WEATHER </s> -0.3010
-0.3010 WHAT TIME -0.1761
-0.3010 WHATS THE -0.2788

\3-grams:
-0.3010 <s> CHANGE THE
-0.3010 <s> SCARLETT </s>
-0.3010 <s> SEXY TIME
-0.9031 <s> TURN OFF
-0.9031 <s> TURN ON
-0.6021 <s> TURN THE
-0.3010 <s> WHAT TIME
-0.3010 <s> WHATS THE
-0.5229 CHANGE THE LIGHTS
-0.6990 CHANGE THE TV
-0.3010 IS IT </s>
-0.3010 LIGHTS BLUE </s>
-0.3010 LIGHTS BRIGHTER </s>
-0.3010 LIGHTS DARKER </s>
-0.3010 LIGHTS GREEN </s>
-0.3010 LIGHTS RED </s>
-0.3010 OFF THE LIGHTS
-0.3010 ON THE LIGHTS
-0.3010 SEXY TIME </s>
-0.8451 THE LIGHTS </s>
-1.1461 THE LIGHTS BLUE
-1.1461 THE LIGHTS BRIGHTER
-1.1461 THE LIGHTS DARKER
-1.1461 THE LIGHTS GREEN
-1.1461 THE LIGHTS RED
-0.3010 THE TV TO
-0.3010 THE WEATHER </s>
-0.3010 TIME IS IT
-0.3010 TO HBO </s>
-0.3010 TO MTV </s>
-0.3010 TURN OFF THE
-0.3010 TURN ON THE
-0.3010 TURN THE LIGHTS
-0.6021 TV TO HBO
-0.6021 TV TO MTV
-0.3010 WHAT TIME IS
-0.3010 WHATS THE WEATHER

\end\
